digraph Tree {
node [shape=box] ;
0 [label="X[6] <= 50925.0\nentropy = 1.4154\nsamples = 1587\nvalue = [276, 422, 889]"] ;
1 [label="X[4] <= 323.0\nentropy = 0.9064\nsamples = 1311\nvalue = [0, 422, 889]"] ;
0 -> 1 [labeldistance=2.5, labelangle=45, headlabel="True"] ;
2 [label="X[4] <= 22.5\nentropy = 0.4695\nsamples = 609\nvalue = [0, 61, 548]"] ;
1 -> 2 ;
3 [label="X[2] <= 0.5\nentropy = 0.469\nsamples = 10\nvalue = [0, 9, 1]"] ;
2 -> 3 ;
4 [label="entropy = 0.0\nsamples = 9\nvalue = [0, 9, 0]"] ;
3 -> 4 ;
5 [label="entropy = 0.0\nsamples = 1\nvalue = [0, 0, 1]"] ;
3 -> 5 ;
6 [label="X[4] <= 101.0\nentropy = 0.4257\nsamples = 599\nvalue = [0, 52, 547]"] ;
2 -> 6 ;
7 [label="X[3] <= 0.15\nentropy = 0.2021\nsamples = 317\nvalue = [0, 10, 307]"] ;
6 -> 7 ;
8 [label="entropy = 0.0\nsamples = 112\nvalue = [0, 0, 112]"] ;
7 -> 8 ;
9 [label="X[4] <= 45.0\nentropy = 0.2812\nsamples = 205\nvalue = [0, 10, 195]"] ;
7 -> 9 ;
10 [label="entropy = 0.0\nsamples = 4\nvalue = [0, 4, 0]"] ;
9 -> 10 ;
11 [label="X[3] <= 0.25\nentropy = 0.1936\nsamples = 201\nvalue = [0, 6, 195]"] ;
9 -> 11 ;
12 [label="entropy = 0.0\nsamples = 90\nvalue = [0, 0, 90]"] ;
11 -> 12 ;
13 [label="X[4] <= 67.85\nentropy = 0.3034\nsamples = 111\nvalue = [0, 6, 105]"] ;
11 -> 13 ;
14 [label="entropy = 0.0\nsamples = 4\nvalue = [0, 4, 0]"] ;
13 -> 14 ;
15 [label="X[4] <= 78.5\nentropy = 0.134\nsamples = 107\nvalue = [0, 2, 105]"] ;
13 -> 15 ;
16 [label="entropy = 0.0\nsamples = 61\nvalue = [0, 0, 61]"] ;
15 -> 16 ;
17 [label="X[4] <= 90.0\nentropy = 0.258\nsamples = 46\nvalue = [0, 2, 44]"] ;
15 -> 17 ;
18 [label="entropy = 0.0\nsamples = 2\nvalue = [0, 2, 0]"] ;
17 -> 18 ;
19 [label="entropy = 0.0\nsamples = 44\nvalue = [0, 0, 44]"] ;
17 -> 19 ;
20 [label="X[4] <= 114.425\nentropy = 0.6072\nsamples = 282\nvalue = [0, 42, 240]"] ;
6 -> 20 ;
21 [label="entropy = 0.0\nsamples = 5\nvalue = [0, 5, 0]"] ;
20 -> 21 ;
22 [label="X[4] <= 123.5\nentropy = 0.5672\nsamples = 277\nvalue = [0, 37, 240]"] ;
20 -> 22 ;
23 [label="entropy = 0.0\nsamples = 42\nvalue = [0, 0, 42]"] ;
22 -> 23 ;
24 [label="X[4] <= 135.0\nentropy = 0.6282\nsamples = 235\nvalue = [0, 37, 198]"] ;
22 -> 24 ;
25 [label="entropy = 0.0\nsamples = 4\nvalue = [0, 4, 0]"] ;
24 -> 25 ;
26 [label="X[4] <= 146.0\nentropy = 0.5917\nsamples = 231\nvalue = [0, 33, 198]"] ;
24 -> 26 ;
27 [label="entropy = 0.0\nsamples = 24\nvalue = [0, 0, 24]"] ;
26 -> 27 ;
28 [label="X[4] <= 159.85\nentropy = 0.6329\nsamples = 207\nvalue = [0, 33, 174]"] ;
26 -> 28 ;
29 [label="entropy = 0.0\nsamples = 4\nvalue = [0, 4, 0]"] ;
28 -> 29 ;
30 [label="X[4] <= 190.325\nentropy = 0.5917\nsamples = 203\nvalue = [0, 29, 174]"] ;
28 -> 30 ;
31 [label="X[5] <= 3.55\nentropy = 0.2223\nsamples = 56\nvalue = [0, 2, 54]"] ;
30 -> 31 ;
32 [label="entropy = 0.0\nsamples = 35\nvalue = [0, 0, 35]"] ;
31 -> 32 ;
33 [label="X[6] <= 5.035\nentropy = 0.4537\nsamples = 21\nvalue = [0, 2, 19]"] ;
31 -> 33 ;
34 [label="entropy = 0.0\nsamples = 1\nvalue = [0, 1, 0]"] ;
33 -> 34 ;
35 [label="X[1] <= 7.5\nentropy = 0.2864\nsamples = 20\nvalue = [0, 1, 19]"] ;
33 -> 35 ;
36 [label="entropy = 0.0\nsamples = 16\nvalue = [0, 0, 16]"] ;
35 -> 36 ;
37 [label="X[3] <= 0.75\nentropy = 0.8113\nsamples = 4\nvalue = [0, 1, 3]"] ;
35 -> 37 ;
38 [label="entropy = 0.0\nsamples = 3\nvalue = [0, 0, 3]"] ;
37 -> 38 ;
39 [label="entropy = 0.0\nsamples = 1\nvalue = [0, 1, 0]"] ;
37 -> 39 ;
40 [label="X[4] <= 298.425\nentropy = 0.688\nsamples = 147\nvalue = [0, 27, 120]"] ;
30 -> 40 ;
41 [label="X[4] <= 281.0\nentropy = 0.8\nsamples = 107\nvalue = [0, 26, 81]"] ;
40 -> 41 ;
42 [label="X[4] <= 204.7\nentropy = 0.684\nsamples = 99\nvalue = [0, 18, 81]"] ;
41 -> 42 ;
43 [label="entropy = 0.0\nsamples = 3\nvalue = [0, 3, 0]"] ;
42 -> 43 ;
44 [label="X[4] <= 270.0\nentropy = 0.6253\nsamples = 96\nvalue = [0, 15, 81]"] ;
42 -> 44 ;
45 [label="X[3] <= 0.95\nentropy = 0.7219\nsamples = 75\nvalue = [0, 15, 60]"] ;
44 -> 45 ;
46 [label="entropy = 0.0\nsamples = 19\nvalue = [0, 0, 19]"] ;
45 -> 46 ;
47 [label="X[4] <= 228.85\nentropy = 0.8384\nsamples = 56\nvalue = [0, 15, 41]"] ;
45 -> 47 ;
48 [label="entropy = 0.0\nsamples = 7\nvalue = [0, 7, 0]"] ;
47 -> 48 ;
49 [label="X[3] <= 1.05\nentropy = 0.6421\nsamples = 49\nvalue = [0, 8, 41]"] ;
47 -> 49 ;
50 [label="entropy = 0.0\nsamples = 22\nvalue = [0, 0, 22]"] ;
49 -> 50 ;
51 [label="X[4] <= 252.425\nentropy = 0.8767\nsamples = 27\nvalue = [0, 8, 19]"] ;
49 -> 51 ;
52 [label="entropy = 0.0\nsamples = 6\nvalue = [0, 6, 0]"] ;
51 -> 52 ;
53 [label="X[3] <= 1.15\nentropy = 0.4537\nsamples = 21\nvalue = [0, 2, 19]"] ;
51 -> 53 ;
54 [label="entropy = 0.0\nsamples = 19\nvalue = [0, 0, 19]"] ;
53 -> 54 ;
55 [label="entropy = 0.0\nsamples = 2\nvalue = [0, 2, 0]"] ;
53 -> 55 ;
56 [label="entropy = 0.0\nsamples = 21\nvalue = [0, 0, 21]"] ;
44 -> 56 ;
57 [label="entropy = 0.0\nsamples = 8\nvalue = [0, 8, 0]"] ;
41 -> 57 ;
58 [label="X[5] <= 0.1\nentropy = 0.1687\nsamples = 40\nvalue = [0, 1, 39]"] ;
40 -> 58 ;
59 [label="X[4] <= 317.0\nentropy = 0.3228\nsamples = 17\nvalue = [0, 1, 16]"] ;
58 -> 59 ;
60 [label="X[4] <= 305.5\nentropy = 0.5436\nsamples = 8\nvalue = [0, 1, 7]"] ;
59 -> 60 ;
61 [label="entropy = 0.0\nsamples = 7\nvalue = [0, 0, 7]"] ;
60 -> 61 ;
62 [label="entropy = 0.0\nsamples = 1\nvalue = [0, 1, 0]"] ;
60 -> 62 ;
63 [label="entropy = 0.0\nsamples = 9\nvalue = [0, 0, 9]"] ;
59 -> 63 ;
64 [label="entropy = 0.0\nsamples = 23\nvalue = [0, 0, 23]"] ;
58 -> 64 ;
65 [label="X[3] <= 5.45\nentropy = 0.9994\nsamples = 702\nvalue = [0, 361, 341]"] ;
1 -> 65 ;
66 [label="X[4] <= 344.425\nentropy = 0.9662\nsamples = 436\nvalue = [0, 171, 265]"] ;
65 -> 66 ;
67 [label="entropy = 0.0\nsamples = 10\nvalue = [0, 10, 0]"] ;
66 -> 67 ;
68 [label="X[4] <= 350.75\nentropy = 0.9566\nsamples = 426\nvalue = [0, 161, 265]"] ;
66 -> 68 ;
69 [label="entropy = 0.0\nsamples = 10\nvalue = [0, 0, 10]"] ;
68 -> 69 ;
70 [label="X[4] <= 1192.0\nentropy = 0.9628\nsamples = 416\nvalue = [0, 161, 255]"] ;
68 -> 70 ;
71 [label="X[3] <= 5.15\nentropy = 0.9689\nsamples = 406\nvalue = [0, 161, 245]"] ;
70 -> 71 ;
72 [label="X[4] <= 1126.425\nentropy = 0.9611\nsamples = 398\nvalue = [0, 153, 245]"] ;
71 -> 72 ;
73 [label="X[3] <= 4.85\nentropy = 0.9694\nsamples = 385\nvalue = [0, 153, 232]"] ;
72 -> 73 ;
74 [label="X[4] <= 1034.5\nentropy = 0.9566\nsamples = 373\nvalue = [0, 141, 232]"] ;
73 -> 74 ;
75 [label="X[3] <= 4.45\nentropy = 0.9662\nsamples = 357\nvalue = [0, 140, 217]"] ;
74 -> 75 ;
76 [label="X[4] <= 364.55\nentropy = 0.9486\nsamples = 343\nvalue = [0, 126, 217]"] ;
75 -> 76 ;
77 [label="entropy = 0.0\nsamples = 4\nvalue = [0, 4, 0]"] ;
76 -> 77 ;
78 [label="X[5] <= 16.85\nentropy = 0.9426\nsamples = 339\nvalue = [0, 122, 217]"] ;
76 -> 78 ;
79 [label="X[4] <= 371.0\nentropy = 0.9123\nsamples = 281\nvalue = [0, 92, 189]"] ;
78 -> 79 ;
80 [label="entropy = 0.0\nsamples = 7\nvalue = [0, 0, 7]"] ;
79 -> 80 ;
81 [label="X[4] <= 386.0\nentropy = 0.9207\nsamples = 274\nvalue = [0, 92, 182]"] ;
79 -> 81 ;
82 [label="entropy = 0.0\nsamples = 7\nvalue = [0, 7, 0]"] ;
81 -> 82 ;
83 [label="X[4] <= 393.5\nentropy = 0.9026\nsamples = 267\nvalue = [0, 85, 182]"] ;
81 -> 83 ;
84 [label="entropy = 0.0\nsamples = 11\nvalue = [0, 0, 11]"] ;
83 -> 84 ;
85 [label="X[4] <= 413.425\nentropy = 0.917\nsamples = 256\nvalue = [0, 85, 171]"] ;
83 -> 85 ;
86 [label="entropy = 0.0\nsamples = 5\nvalue = [0, 5, 0]"] ;
85 -> 86 ;
87 [label="X[3] <= 1.95\nentropy = 0.903\nsamples = 251\nvalue = [0, 80, 171]"] ;
85 -> 87 ;
88 [label="X[1] <= 15.0\nentropy = 0.469\nsamples = 20\nvalue = [0, 2, 18]"] ;
87 -> 88 ;
89 [label="X[1] <= 4.5\nentropy = 0.2975\nsamples = 19\nvalue = [0, 1, 18]"] ;
88 -> 89 ;
90 [label="entropy = 0.0\nsamples = 12\nvalue = [0, 0, 12]"] ;
89 -> 90 ;
91 [label="X[4] <= 427.5\nentropy = 0.5917\nsamples = 7\nvalue = [0, 1, 6]"] ;
89 -> 91 ;
92 [label="X[3] <= 1.85\nentropy = 1.0\nsamples = 2\nvalue = [0, 1, 1]"] ;
91 -> 92 ;
93 [label="entropy = 0.0\nsamples = 1\nvalue = [0, 0, 1]"] ;
92 -> 93 ;
94 [label="entropy = 0.0\nsamples = 1\nvalue = [0, 1, 0]"] ;
92 -> 94 ;
95 [label="entropy = 0.0\nsamples = 5\nvalue = [0, 0, 5]"] ;
91 -> 95 ;
96 [label="entropy = 0.0\nsamples = 1\nvalue = [0, 1, 0]"] ;
88 -> 96 ;
97 [label="X[4] <= 454.25\nentropy = 0.9226\nsamples = 231\nvalue = [0, 78, 153]"] ;
87 -> 97 ;
98 [label="entropy = 0.0\nsamples = 7\nvalue = [0, 7, 0]"] ;
97 -> 98 ;
99 [label="X[3] <= 2.25\nentropy = 0.901\nsamples = 224\nvalue = [0, 71, 153]"] ;
97 -> 99 ;
100 [label="X[4] <= 495.0\nentropy = 0.5436\nsamples = 32\nvalue = [0, 4, 28]"] ;
99 -> 100 ;
101 [label="X[3] <= 2.15\nentropy = 0.7025\nsamples = 21\nvalue = [0, 4, 17]"] ;
100 -> 101 ;
102 [label="X[4] <= 472.5\nentropy = 0.4855\nsamples = 19\nvalue = [0, 2, 17]"] ;
101 -> 102 ;
103 [label="X[3] <= 2.05\nentropy = 0.8113\nsamples = 8\nvalue = [0, 2, 6]"] ;
102 -> 103 ;
104 [label="entropy = 0.0\nsamples = 6\nvalue = [0, 0, 6]"] ;
103 -> 104 ;
105 [label="entropy = 0.0\nsamples = 2\nvalue = [0, 2, 0]"] ;
103 -> 105 ;
106 [label="entropy = 0.0\nsamples = 11\nvalue = [0, 0, 11]"] ;
102 -> 106 ;
107 [label="entropy = 0.0\nsamples = 2\nvalue = [0, 2, 0]"] ;
101 -> 107 ;
108 [label="entropy = 0.0\nsamples = 11\nvalue = [0, 0, 11]"] ;
100 -> 108 ;
109 [label="X[4] <= 528.5\nentropy = 0.9331\nsamples = 192\nvalue = [0, 67, 125]"] ;
99 -> 109 ;
110 [label="entropy = 0.0\nsamples = 7\nvalue = [0, 7, 0]"] ;
109 -> 110 ;
111 [label="X[3] <= 2.35\nentropy = 0.909\nsamples = 185\nvalue = [0, 60, 125]"] ;
109 -> 111 ;
112 [label="entropy = 0.0\nsamples = 14\nvalue = [0, 0, 14]"] ;
111 -> 112 ;
113 [label="X[4] <= 551.0\nentropy = 0.9348\nsamples = 171\nvalue = [0, 60, 111]"] ;
111 -> 113 ;
114 [label="entropy = 0.0\nsamples = 4\nvalue = [0, 4, 0]"] ;
113 -> 114 ;
115 [label="X[4] <= 983.25\nentropy = 0.9203\nsamples = 167\nvalue = [0, 56, 111]"] ;
113 -> 115 ;
116 [label="X[3] <= 4.25\nentropy = 0.9341\nsamples = 160\nvalue = [0, 56, 104]"] ;
115 -> 116 ;
117 [label="X[4] <= 954.5\nentropy = 0.9139\nsamples = 155\nvalue = [0, 51, 104]"] ;
116 -> 117 ;
118 [label="X[3] <= 4.15\nentropy = 0.9248\nsamples = 150\nvalue = [0, 51, 99]"] ;
117 -> 118 ;
119 [label="X[4] <= 911.0\nentropy = 0.9065\nsamples = 146\nvalue = [0, 47, 99]"] ;
118 -> 119 ;
120 [label="X[3] <= 3.95\nentropy = 0.9277\nsamples = 137\nvalue = [0, 47, 90]"] ;
119 -> 120 ;
121 [label="X[4] <= 821.0\nentropy = 0.9024\nsamples = 132\nvalue = [0, 42, 90]"] ;
120 -> 121 ;
122 [label="X[3] <= 3.55\nentropy = 0.9403\nsamples = 112\nvalue = [0, 40, 72]"] ;
121 -> 122 ;
123 [label="X[4] <= 776.0\nentropy = 0.9119\nsamples = 107\nvalue = [0, 35, 72]"] ;
122 -> 123 ;
124 [label="X[3] <= 3.35\nentropy = 0.9464\nsamples = 96\nvalue = [0, 35, 61]"] ;
123 -> 124 ;
125 [label="X[4] <= 732.5\nentropy = 0.9068\nsamples = 90\nvalue = [0, 29, 61]"] ;
124 -> 125 ;
126 [label="X[3] <= 3.2\nentropy = 0.9484\nsamples = 79\nvalue = [0, 29, 50]"] ;
125 -> 126 ;
127 [label="X[4] <= 686.0\nentropy = 0.8989\nsamples = 73\nvalue = [0, 23, 50]"] ;
126 -> 127 ;
128 [label="X[3] <= 2.85\nentropy = 0.973\nsamples = 57\nvalue = [0, 23, 34]"] ;
127 -> 128 ;
129 [label="X[0] <= 1.0\nentropy = 0.7496\nsamples = 42\nvalue = [0, 9, 33]"] ;
128 -> 129 ;
130 [label="X[4] <= 574.425\nentropy = 0.8631\nsamples = 28\nvalue = [0, 8, 20]"] ;
129 -> 130 ;
131 [label="X[3] <= 2.45\nentropy = 0.8113\nsamples = 4\nvalue = [0, 3, 1]"] ;
130 -> 131 ;
132 [label="entropy = 0.0\nsamples = 1\nvalue = [0, 0, 1]"] ;
131 -> 132 ;
133 [label="entropy = 0.0\nsamples = 3\nvalue = [0, 3, 0]"] ;
131 -> 133 ;
134 [label="X[3] <= 2.55\nentropy = 0.7383\nsamples = 24\nvalue = [0, 5, 19]"] ;
130 -> 134 ;
135 [label="entropy = 0.0\nsamples = 8\nvalue = [0, 0, 8]"] ;
134 -> 135 ;
136 [label="X[4] <= 596.85\nentropy = 0.896\nsamples = 16\nvalue = [0, 5, 11]"] ;
134 -> 136 ;
137 [label="entropy = 0.0\nsamples = 2\nvalue = [0, 2, 0]"] ;
136 -> 137 ;
138 [label="X[5] <= 4.65\nentropy = 0.7496\nsamples = 14\nvalue = [0, 3, 11]"] ;
136 -> 138 ;
139 [label="X[4] <= 616.0\nentropy = 1.0\nsamples = 6\nvalue = [0, 3, 3]"] ;
138 -> 139 ;
140 [label="entropy = 0.0\nsamples = 2\nvalue = [0, 2, 0]"] ;
139 -> 140 ;
141 [label="X[6] <= 1.21\nentropy = 0.8113\nsamples = 4\nvalue = [0, 1, 3]"] ;
139 -> 141 ;
142 [label="entropy = 0.0\nsamples = 3\nvalue = [0, 0, 3]"] ;
141 -> 142 ;
143 [label="entropy = 0.0\nsamples = 1\nvalue = [0, 1, 0]"] ;
141 -> 143 ;
144 [label="entropy = 0.0\nsamples = 8\nvalue = [0, 0, 8]"] ;
138 -> 144 ;
145 [label="X[6] <= 0.02\nentropy = 0.3712\nsamples = 14\nvalue = [0, 1, 13]"] ;
129 -> 145 ;
146 [label="X[1] <= 3.5\nentropy = 0.9183\nsamples = 3\nvalue = [0, 1, 2]"] ;
145 -> 146 ;
147 [label="entropy = 0.0\nsamples = 2\nvalue = [0, 0, 2]"] ;
146 -> 147 ;
148 [label="entropy = 0.0\nsamples = 1\nvalue = [0, 1, 0]"] ;
146 -> 148 ;
149 [label="entropy = 0.0\nsamples = 11\nvalue = [0, 0, 11]"] ;
145 -> 149 ;
150 [label="X[6] <= 4.285\nentropy = 0.3534\nsamples = 15\nvalue = [0, 14, 1]"] ;
128 -> 150 ;
151 [label="entropy = 0.0\nsamples = 14\nvalue = [0, 14, 0]"] ;
150 -> 151 ;
152 [label="entropy = 0.0\nsamples = 1\nvalue = [0, 0, 1]"] ;
150 -> 152 ;
153 [label="entropy = 0.0\nsamples = 16\nvalue = [0, 0, 16]"] ;
127 -> 153 ;
154 [label="entropy = 0.0\nsamples = 6\nvalue = [0, 6, 0]"] ;
126 -> 154 ;
155 [label="entropy = 0.0\nsamples = 11\nvalue = [0, 0, 11]"] ;
125 -> 155 ;
156 [label="entropy = 0.0\nsamples = 6\nvalue = [0, 6, 0]"] ;
124 -> 156 ;
157 [label="entropy = 0.0\nsamples = 11\nvalue = [0, 0, 11]"] ;
123 -> 157 ;
158 [label="entropy = 0.0\nsamples = 5\nvalue = [0, 5, 0]"] ;
122 -> 158 ;
159 [label="X[3] <= 3.85\nentropy = 0.469\nsamples = 20\nvalue = [0, 2, 18]"] ;
121 -> 159 ;
160 [label="entropy = 0.0\nsamples = 16\nvalue = [0, 0, 16]"] ;
159 -> 160 ;
161 [label="X[4] <= 895.85\nentropy = 1.0\nsamples = 4\nvalue = [0, 2, 2]"] ;
159 -> 161 ;
162 [label="entropy = 0.0\nsamples = 2\nvalue = [0, 2, 0]"] ;
161 -> 162 ;
163 [label="entropy = 0.0\nsamples = 2\nvalue = [0, 0, 2]"] ;
161 -> 163 ;
164 [label="entropy = 0.0\nsamples = 5\nvalue = [0, 5, 0]"] ;
120 -> 164 ;
165 [label="entropy = 0.0\nsamples = 9\nvalue = [0, 0, 9]"] ;
119 -> 165 ;
166 [label="entropy = 0.0\nsamples = 4\nvalue = [0, 4, 0]"] ;
118 -> 166 ;
167 [label="entropy = 0.0\nsamples = 5\nvalue = [0, 0, 5]"] ;
117 -> 167 ;
168 [label="entropy = 0.0\nsamples = 5\nvalue = [0, 5, 0]"] ;
116 -> 168 ;
169 [label="entropy = 0.0\nsamples = 7\nvalue = [0, 0, 7]"] ;
115 -> 169 ;
170 [label="X[6] <= 13.41\nentropy = 0.9991\nsamples = 58\nvalue = [0, 30, 28]"] ;
78 -> 170 ;
171 [label="X[0] <= 35.0\nentropy = 0.9755\nsamples = 49\nvalue = [0, 29, 20]"] ;
170 -> 171 ;
172 [label="X[6] <= 6.53\nentropy = 0.994\nsamples = 44\nvalue = [0, 24, 20]"] ;
171 -> 172 ;
173 [label="X[4] <= 843.5\nentropy = 0.7793\nsamples = 13\nvalue = [0, 10, 3]"] ;
172 -> 173 ;
174 [label="entropy = 0.0\nsamples = 6\nvalue = [0, 6, 0]"] ;
173 -> 174 ;
175 [label="X[3] <= 4.1\nentropy = 0.9852\nsamples = 7\nvalue = [0, 4, 3]"] ;
173 -> 175 ;
176 [label="X[0] <= 6.0\nentropy = 0.8113\nsamples = 4\nvalue = [0, 1, 3]"] ;
175 -> 176 ;
177 [label="entropy = 0.0\nsamples = 3\nvalue = [0, 0, 3]"] ;
176 -> 177 ;
178 [label="entropy = 0.0\nsamples = 1\nvalue = [0, 1, 0]"] ;
176 -> 178 ;
179 [label="entropy = 0.0\nsamples = 3\nvalue = [0, 3, 0]"] ;
175 -> 179 ;
180 [label="X[4] <= 523.25\nentropy = 0.9932\nsamples = 31\nvalue = [0, 14, 17]"] ;
172 -> 180 ;
181 [label="X[5] <= 18.35\nentropy = 0.7642\nsamples = 9\nvalue = [0, 7, 2]"] ;
180 -> 181 ;
182 [label="entropy = 0.0\nsamples = 4\nvalue = [0, 4, 0]"] ;
181 -> 182 ;
183 [label="X[6] <= 11.61\nentropy = 0.971\nsamples = 5\nvalue = [0, 3, 2]"] ;
181 -> 183 ;
184 [label="entropy = 0.0\nsamples = 2\nvalue = [0, 0, 2]"] ;
183 -> 184 ;
185 [label="entropy = 0.0\nsamples = 3\nvalue = [0, 3, 0]"] ;
183 -> 185 ;
186 [label="X[3] <= 2.5\nentropy = 0.9024\nsamples = 22\nvalue = [0, 7, 15]"] ;
180 -> 186 ;
187 [label="entropy = 0.0\nsamples = 3\nvalue = [0, 0, 3]"] ;
186 -> 187 ;
188 [label="X[4] <= 596.0\nentropy = 0.9495\nsamples = 19\nvalue = [0, 7, 12]"] ;
186 -> 188 ;
189 [label="entropy = 0.0\nsamples = 3\nvalue = [0, 3, 0]"] ;
188 -> 189 ;
190 [label="X[5] <= 28.95\nentropy = 0.8113\nsamples = 16\nvalue = [0, 4, 12]"] ;
188 -> 190 ;
191 [label="entropy = 0.0\nsamples = 8\nvalue = [0, 0, 8]"] ;
190 -> 191 ;
192 [label="X[5] <= 32.95\nentropy = 1.0\nsamples = 8\nvalue = [0, 4, 4]"] ;
190 -> 192 ;
193 [label="entropy = 0.0\nsamples = 2\nvalue = [0, 2, 0]"] ;
192 -> 193 ;
194 [label="X[6] <= 10.78\nentropy = 0.9183\nsamples = 6\nvalue = [0, 2, 4]"] ;
192 -> 194 ;
195 [label="entropy = 0.0\nsamples = 3\nvalue = [0, 0, 3]"] ;
194 -> 195 ;
196 [label="X[6] <= 11.99\nentropy = 0.9183\nsamples = 3\nvalue = [0, 2, 1]"] ;
194 -> 196 ;
197 [label="entropy = 0.0\nsamples = 2\nvalue = [0, 2, 0]"] ;
196 -> 197 ;
198 [label="entropy = 0.0\nsamples = 1\nvalue = [0, 0, 1]"] ;
196 -> 198 ;
199 [label="entropy = 0.0\nsamples = 5\nvalue = [0, 5, 0]"] ;
171 -> 199 ;
200 [label="X[1] <= 67.5\nentropy = 0.5033\nsamples = 9\nvalue = [0, 1, 8]"] ;
170 -> 200 ;
201 [label="entropy = 0.0\nsamples = 7\nvalue = [0, 0, 7]"] ;
200 -> 201 ;
202 [label="X[3] <= 3.45\nentropy = 1.0\nsamples = 2\nvalue = [0, 1, 1]"] ;
200 -> 202 ;
203 [label="entropy = 0.0\nsamples = 1\nvalue = [0, 0, 1]"] ;
202 -> 203 ;
204 [label="entropy = 0.0\nsamples = 1\nvalue = [0, 1, 0]"] ;
202 -> 204 ;
205 [label="entropy = 0.0\nsamples = 14\nvalue = [0, 14, 0]"] ;
75 -> 205 ;
206 [label="X[1] <= 17.5\nentropy = 0.3373\nsamples = 16\nvalue = [0, 1, 15]"] ;
74 -> 206 ;
207 [label="entropy = 0.0\nsamples = 14\nvalue = [0, 0, 14]"] ;
206 -> 207 ;
208 [label="X[6] <= 7.81\nentropy = 1.0\nsamples = 2\nvalue = [0, 1, 1]"] ;
206 -> 208 ;
209 [label="entropy = 0.0\nsamples = 1\nvalue = [0, 1, 0]"] ;
208 -> 209 ;
210 [label="entropy = 0.0\nsamples = 1\nvalue = [0, 0, 1]"] ;
208 -> 210 ;
211 [label="entropy = 0.0\nsamples = 12\nvalue = [0, 12, 0]"] ;
73 -> 211 ;
212 [label="entropy = 0.0\nsamples = 13\nvalue = [0, 0, 13]"] ;
72 -> 212 ;
213 [label="entropy = 0.0\nsamples = 8\nvalue = [0, 8, 0]"] ;
71 -> 213 ;
214 [label="entropy = 0.0\nsamples = 10\nvalue = [0, 0, 10]"] ;
70 -> 214 ;
215 [label="X[3] <= 14.95\nentropy = 0.8631\nsamples = 266\nvalue = [0, 190, 76]"] ;
65 -> 215 ;
216 [label="X[1] <= 27.5\nentropy = 0.9227\nsamples = 225\nvalue = [0, 149, 76]"] ;
215 -> 216 ;
217 [label="X[4] <= 1259.5\nentropy = 0.9512\nsamples = 205\nvalue = [0, 129, 76]"] ;
216 -> 217 ;
218 [label="entropy = 0.0\nsamples = 17\nvalue = [0, 17, 0]"] ;
217 -> 218 ;
219 [label="X[3] <= 8.85\nentropy = 0.9734\nsamples = 188\nvalue = [0, 112, 76]"] ;
217 -> 219 ;
220 [label="X[4] <= 1900.5\nentropy = 0.9995\nsamples = 117\nvalue = [0, 60, 57]"] ;
219 -> 220 ;
221 [label="X[3] <= 7.95\nentropy = 0.9924\nsamples = 107\nvalue = [0, 59, 48]"] ;
220 -> 221 ;
222 [label="X[4] <= 1736.5\nentropy = 0.9999\nsamples = 93\nvalue = [0, 46, 47]"] ;
221 -> 222 ;
223 [label="X[3] <= 7.55\nentropy = 0.9976\nsamples = 87\nvalue = [0, 46, 41]"] ;
222 -> 223 ;
224 [label="X[4] <= 1693.5\nentropy = 1.0\nsamples = 82\nvalue = [0, 41, 41]"] ;
223 -> 224 ;
225 [label="X[3] <= 7.35\nentropy = 0.9981\nsamples = 78\nvalue = [0, 41, 37]"] ;
224 -> 225 ;
226 [label="X[4] <= 1642.2\nentropy = 0.9999\nsamples = 73\nvalue = [0, 36, 37]"] ;
225 -> 226 ;
227 [label="X[3] <= 7.05\nentropy = 0.9975\nsamples = 68\nvalue = [0, 36, 32]"] ;
226 -> 227 ;
228 [label="X[4] <= 1540.5\nentropy = 0.9998\nsamples = 63\nvalue = [0, 31, 32]"] ;
227 -> 228 ;
229 [label="X[3] <= 6.65\nentropy = 0.9944\nsamples = 57\nvalue = [0, 31, 26]"] ;
228 -> 229 ;
230 [label="X[4] <= 1462.0\nentropy = 0.9877\nsamples = 46\nvalue = [0, 20, 26]"] ;
229 -> 230 ;
231 [label="X[3] <= 6.35\nentropy = 0.9995\nsamples = 39\nvalue = [0, 20, 19]"] ;
230 -> 231 ;
232 [label="X[6] <= 4.045\nentropy = 0.9481\nsamples = 30\nvalue = [0, 11, 19]"] ;
231 -> 232 ;
233 [label="X[4] <= 1377.7\nentropy = 0.7383\nsamples = 24\nvalue = [0, 5, 19]"] ;
232 -> 233 ;
234 [label="X[3] <= 5.75\nentropy = 1.0\nsamples = 8\nvalue = [0, 4, 4]"] ;
233 -> 234 ;
235 [label="entropy = 0.0\nsamples = 3\nvalue = [0, 0, 3]"] ;
234 -> 235 ;
236 [label="X[6] <= 0.62\nentropy = 0.7219\nsamples = 5\nvalue = [0, 4, 1]"] ;
234 -> 236 ;
237 [label="entropy = 0.0\nsamples = 4\nvalue = [0, 4, 0]"] ;
236 -> 237 ;
238 [label="entropy = 0.0\nsamples = 1\nvalue = [0, 0, 1]"] ;
236 -> 238 ;
239 [label="X[3] <= 6.25\nentropy = 0.3373\nsamples = 16\nvalue = [0, 1, 15]"] ;
233 -> 239 ;
240 [label="entropy = 0.0\nsamples = 12\nvalue = [0, 0, 12]"] ;
239 -> 240 ;
241 [label="X[1] <= 6.5\nentropy = 0.8113\nsamples = 4\nvalue = [0, 1, 3]"] ;
239 -> 241 ;
242 [label="entropy = 0.0\nsamples = 1\nvalue = [0, 1, 0]"] ;
241 -> 242 ;
243 [label="entropy = 0.0\nsamples = 3\nvalue = [0, 0, 3]"] ;
241 -> 243 ;
244 [label="entropy = 0.0\nsamples = 6\nvalue = [0, 6, 0]"] ;
232 -> 244 ;
245 [label="entropy = 0.0\nsamples = 9\nvalue = [0, 9, 0]"] ;
231 -> 245 ;
246 [label="entropy = 0.0\nsamples = 7\nvalue = [0, 0, 7]"] ;
230 -> 246 ;
247 [label="entropy = 0.0\nsamples = 11\nvalue = [0, 11, 0]"] ;
229 -> 247 ;
248 [label="entropy = 0.0\nsamples = 6\nvalue = [0, 0, 6]"] ;
228 -> 248 ;
249 [label="entropy = 0.0\nsamples = 5\nvalue = [0, 5, 0]"] ;
227 -> 249 ;
250 [label="entropy = 0.0\nsamples = 5\nvalue = [0, 0, 5]"] ;
226 -> 250 ;
251 [label="entropy = 0.0\nsamples = 5\nvalue = [0, 5, 0]"] ;
225 -> 251 ;
252 [label="entropy = 0.0\nsamples = 4\nvalue = [0, 0, 4]"] ;
224 -> 252 ;
253 [label="entropy = 0.0\nsamples = 5\nvalue = [0, 5, 0]"] ;
223 -> 253 ;
254 [label="entropy = 0.0\nsamples = 6\nvalue = [0, 0, 6]"] ;
222 -> 254 ;
255 [label="X[6] <= 3.51\nentropy = 0.3712\nsamples = 14\nvalue = [0, 13, 1]"] ;
221 -> 255 ;
256 [label="entropy = 0.0\nsamples = 13\nvalue = [0, 13, 0]"] ;
255 -> 256 ;
257 [label="entropy = 0.0\nsamples = 1\nvalue = [0, 0, 1]"] ;
255 -> 257 ;
258 [label="X[3] <= 8.55\nentropy = 0.469\nsamples = 10\nvalue = [0, 1, 9]"] ;
220 -> 258 ;
259 [label="entropy = 0.0\nsamples = 6\nvalue = [0, 0, 6]"] ;
258 -> 259 ;
260 [label="X[4] <= 1968.0\nentropy = 0.8113\nsamples = 4\nvalue = [0, 1, 3]"] ;
258 -> 260 ;
261 [label="entropy = 0.0\nsamples = 1\nvalue = [0, 1, 0]"] ;
260 -> 261 ;
262 [label="entropy = 0.0\nsamples = 3\nvalue = [0, 0, 3]"] ;
260 -> 262 ;
263 [label="X[4] <= 2091.5\nentropy = 0.838\nsamples = 71\nvalue = [0, 52, 19]"] ;
219 -> 263 ;
264 [label="entropy = 0.0\nsamples = 8\nvalue = [0, 8, 0]"] ;
263 -> 264 ;
265 [label="X[3] <= 9.4\nentropy = 0.8832\nsamples = 63\nvalue = [0, 44, 19]"] ;
263 -> 265 ;
266 [label="entropy = 0.0\nsamples = 2\nvalue = [0, 0, 2]"] ;
265 -> 266 ;
267 [label="X[4] <= 2204.0\nentropy = 0.8537\nsamples = 61\nvalue = [0, 44, 17]"] ;
265 -> 267 ;
268 [label="entropy = 0.0\nsamples = 7\nvalue = [0, 7, 0]"] ;
267 -> 268 ;
269 [label="X[3] <= 10.0\nentropy = 0.8987\nsamples = 54\nvalue = [0, 37, 17]"] ;
267 -> 269 ;
270 [label="entropy = 0.0\nsamples = 4\nvalue = [0, 0, 4]"] ;
269 -> 270 ;
271 [label="X[2] <= 0.675\nentropy = 0.8267\nsamples = 50\nvalue = [0, 37, 13]"] ;
269 -> 271 ;
272 [label="X[4] <= 2351.0\nentropy = 0.4912\nsamples = 28\nvalue = [0, 25, 3]"] ;
271 -> 272 ;
273 [label="entropy = 0.0\nsamples = 9\nvalue = [0, 9, 0]"] ;
272 -> 273 ;
274 [label="X[5] <= 41.35\nentropy = 0.6292\nsamples = 19\nvalue = [0, 16, 3]"] ;
272 -> 274 ;
275 [label="X[6] <= 0.11\nentropy = 0.5033\nsamples = 18\nvalue = [0, 16, 2]"] ;
274 -> 275 ;
276 [label="X[4] <= 2800.5\nentropy = 0.7642\nsamples = 9\nvalue = [0, 7, 2]"] ;
275 -> 276 ;
277 [label="entropy = 0.0\nsamples = 3\nvalue = [0, 3, 0]"] ;
276 -> 277 ;
278 [label="X[3] <= 12.85\nentropy = 0.9183\nsamples = 6\nvalue = [0, 4, 2]"] ;
276 -> 278 ;
279 [label="entropy = 0.0\nsamples = 1\nvalue = [0, 0, 1]"] ;
278 -> 279 ;
280 [label="X[3] <= 13.75\nentropy = 0.7219\nsamples = 5\nvalue = [0, 4, 1]"] ;
278 -> 280 ;
281 [label="entropy = 0.0\nsamples = 2\nvalue = [0, 2, 0]"] ;
280 -> 281 ;
282 [label="X[4] <= 3249.0\nentropy = 0.9183\nsamples = 3\nvalue = [0, 2, 1]"] ;
280 -> 282 ;
283 [label="entropy = 0.0\nsamples = 1\nvalue = [0, 0, 1]"] ;
282 -> 283 ;
284 [label="entropy = 0.0\nsamples = 2\nvalue = [0, 2, 0]"] ;
282 -> 284 ;
285 [label="entropy = 0.0\nsamples = 9\nvalue = [0, 9, 0]"] ;
275 -> 285 ;
286 [label="entropy = 0.0\nsamples = 1\nvalue = [0, 0, 1]"] ;
274 -> 286 ;
287 [label="X[5] <= 2.25\nentropy = 0.994\nsamples = 22\nvalue = [0, 12, 10]"] ;
271 -> 287 ;
288 [label="entropy = 0.0\nsamples = 3\nvalue = [0, 0, 3]"] ;
287 -> 288 ;
289 [label="X[4] <= 3193.5\nentropy = 0.9495\nsamples = 19\nvalue = [0, 12, 7]"] ;
287 -> 289 ;
290 [label="X[5] <= 22.55\nentropy = 0.874\nsamples = 17\nvalue = [0, 12, 5]"] ;
289 -> 290 ;
291 [label="X[1] <= 4.5\nentropy = 0.65\nsamples = 12\nvalue = [0, 10, 2]"] ;
290 -> 291 ;
292 [label="entropy = 0.0\nsamples = 1\nvalue = [0, 0, 1]"] ;
291 -> 292 ;
293 [label="X[0] <= 20.0\nentropy = 0.4395\nsamples = 11\nvalue = [0, 10, 1]"] ;
291 -> 293 ;
294 [label="entropy = 0.0\nsamples = 9\nvalue = [0, 9, 0]"] ;
293 -> 294 ;
295 [label="X[3] <= 12.7\nentropy = 1.0\nsamples = 2\nvalue = [0, 1, 1]"] ;
293 -> 295 ;
296 [label="entropy = 0.0\nsamples = 1\nvalue = [0, 0, 1]"] ;
295 -> 296 ;
297 [label="entropy = 0.0\nsamples = 1\nvalue = [0, 1, 0]"] ;
295 -> 297 ;
298 [label="X[5] <= 31.5\nentropy = 0.971\nsamples = 5\nvalue = [0, 2, 3]"] ;
290 -> 298 ;
299 [label="entropy = 0.0\nsamples = 2\nvalue = [0, 0, 2]"] ;
298 -> 299 ;
300 [label="X[6] <= 4.365\nentropy = 0.9183\nsamples = 3\nvalue = [0, 2, 1]"] ;
298 -> 300 ;
301 [label="entropy = 0.0\nsamples = 2\nvalue = [0, 2, 0]"] ;
300 -> 301 ;
302 [label="entropy = 0.0\nsamples = 1\nvalue = [0, 0, 1]"] ;
300 -> 302 ;
303 [label="entropy = 0.0\nsamples = 2\nvalue = [0, 0, 2]"] ;
289 -> 303 ;
304 [label="entropy = 0.0\nsamples = 20\nvalue = [0, 20, 0]"] ;
216 -> 304 ;
305 [label="entropy = 0.0\nsamples = 41\nvalue = [0, 41, 0]"] ;
215 -> 305 ;
306 [label="entropy = 0.0\nsamples = 276\nvalue = [276, 0, 0]"] ;
0 -> 306 [labeldistance=2.5, labelangle=-45, headlabel="False"] ;
}