digraph Tree {
node [shape=box] ;
0 [label="X[2] <= 0.95\nentropy = 0.3288\nsamples = 1309\nvalue = [79, 1230]"] ;
1 [label="X[6] <= 15.84\nentropy = 0.0601\nsamples = 429\nvalue = [3, 426]"] ;
0 -> 1 [labeldistance=2.5, labelangle=45, headlabel="True"] ;
2 [label="entropy = 0.0\nsamples = 2\nvalue = [2, 0]"] ;
1 -> 2 ;
3 [label="X[6] <= 31.6\nentropy = 0.0238\nsamples = 427\nvalue = [1, 426]"] ;
1 -> 3 ;
4 [label="X[5] <= 0.15\nentropy = 0.096\nsamples = 81\nvalue = [1, 80]"] ;
3 -> 4 ;
5 [label="entropy = 0.0\nsamples = 80\nvalue = [0, 80]"] ;
4 -> 5 ;
6 [label="entropy = 0.0\nsamples = 1\nvalue = [1, 0]"] ;
4 -> 6 ;
7 [label="entropy = 0.0\nsamples = 346\nvalue = [0, 346]"] ;
3 -> 7 ;
8 [label="X[4] <= 156.0\nentropy = 0.4242\nsamples = 880\nvalue = [76, 804]"] ;
0 -> 8 [labeldistance=2.5, labelangle=-45, headlabel="False"] ;
9 [label="entropy = 0.0\nsamples = 9\nvalue = [9, 0]"] ;
8 -> 9 ;
10 [label="X[2] <= 1.95\nentropy = 0.3912\nsamples = 871\nvalue = [67, 804]"] ;
8 -> 10 ;
11 [label="X[2] <= 1.05\nentropy = 0.1449\nsamples = 291\nvalue = [6, 285]"] ;
10 -> 11 ;
12 [label="entropy = 0.0\nsamples = 120\nvalue = [0, 120]"] ;
11 -> 12 ;
13 [label="X[6] <= 170.5\nentropy = 0.2193\nsamples = 171\nvalue = [6, 165]"] ;
11 -> 13 ;
14 [label="X[4] <= 236.0\nentropy = 0.3348\nsamples = 97\nvalue = [6, 91]"] ;
13 -> 14 ;
15 [label="X[6] <= 72.0\nentropy = 0.4972\nsamples = 55\nvalue = [6, 49]"] ;
14 -> 15 ;
16 [label="X[7] <= 4.3\nentropy = 0.386\nsamples = 53\nvalue = [4, 49]"] ;
15 -> 16 ;
17 [label="entropy = 0.0\nsamples = 31\nvalue = [0, 31]"] ;
16 -> 17 ;
18 [label="X[1] <= 1.0\nentropy = 0.684\nsamples = 22\nvalue = [4, 18]"] ;
16 -> 18 ;
19 [label="X[8] <= 10.1827\nentropy = 0.9183\nsamples = 3\nvalue = [2, 1]"] ;
18 -> 19 ;
20 [label="entropy = 0.0\nsamples = 2\nvalue = [2, 0]"] ;
19 -> 20 ;
21 [label="entropy = 0.0\nsamples = 1\nvalue = [0, 1]"] ;
19 -> 21 ;
22 [label="X[4] <= 207.125\nentropy = 0.4855\nsamples = 19\nvalue = [2, 17]"] ;
18 -> 22 ;
23 [label="X[2] <= 1.25\nentropy = 0.8631\nsamples = 7\nvalue = [2, 5]"] ;
22 -> 23 ;
24 [label="entropy = 0.0\nsamples = 5\nvalue = [0, 5]"] ;
23 -> 24 ;
25 [label="entropy = 0.0\nsamples = 2\nvalue = [2, 0]"] ;
23 -> 25 ;
26 [label="entropy = 0.0\nsamples = 12\nvalue = [0, 12]"] ;
22 -> 26 ;
27 [label="entropy = 0.0\nsamples = 2\nvalue = [2, 0]"] ;
15 -> 27 ;
28 [label="entropy = 0.0\nsamples = 42\nvalue = [0, 42]"] ;
14 -> 28 ;
29 [label="entropy = 0.0\nsamples = 74\nvalue = [0, 74]"] ;
13 -> 29 ;
30 [label="X[4] <= 316.0\nentropy = 0.4852\nsamples = 580\nvalue = [61, 519]"] ;
10 -> 30 ;
31 [label="entropy = 0.0\nsamples = 7\nvalue = [7, 0]"] ;
30 -> 31 ;
32 [label="X[3] <= 2.15\nentropy = 0.4505\nsamples = 573\nvalue = [54, 519]"] ;
30 -> 32 ;
33 [label="entropy = 0.0\nsamples = 85\nvalue = [0, 85]"] ;
32 -> 33 ;
34 [label="X[4] <= 348.5\nentropy = 0.5019\nsamples = 488\nvalue = [54, 434]"] ;
32 -> 34 ;
35 [label="entropy = 0.0\nsamples = 4\nvalue = [4, 0]"] ;
34 -> 35 ;
36 [label="X[1] <= 10.5\nentropy = 0.4794\nsamples = 484\nvalue = [50, 434]"] ;
34 -> 36 ;
37 [label="X[2] <= 4.25\nentropy = 0.5202\nsamples = 428\nvalue = [50, 378]"] ;
36 -> 37 ;
38 [label="X[7] <= 4.55\nentropy = 0.3785\nsamples = 218\nvalue = [16, 202]"] ;
37 -> 38 ;
39 [label="X[4] <= 636.0\nentropy = 0.5201\nsamples = 137\nvalue = [16, 121]"] ;
38 -> 39 ;
40 [label="X[3] <= 3.95\nentropy = 0.582\nsamples = 115\nvalue = [16, 99]"] ;
39 -> 40 ;
41 [label="X[7] <= 0.75\nentropy = 0.5405\nsamples = 113\nvalue = [14, 99]"] ;
40 -> 41 ;
42 [label="entropy = 0.0\nsamples = 17\nvalue = [0, 17]"] ;
41 -> 42 ;
43 [label="X[8] <= 0.3581\nentropy = 0.5993\nsamples = 96\nvalue = [14, 82]"] ;
41 -> 43 ;
44 [label="X[2] <= 2.85\nentropy = 0.9911\nsamples = 9\nvalue = [4, 5]"] ;
43 -> 44 ;
45 [label="entropy = 0.0\nsamples = 2\nvalue = [2, 0]"] ;
44 -> 45 ;
46 [label="X[5] <= 0.8\nentropy = 0.8631\nsamples = 7\nvalue = [2, 5]"] ;
44 -> 46 ;
47 [label="X[8] <= 0.2695\nentropy = 0.971\nsamples = 5\nvalue = [2, 3]"] ;
46 -> 47 ;
48 [label="entropy = 0.0\nsamples = 1\nvalue = [1, 0]"] ;
47 -> 48 ;
49 [label="X[4] <= 476.4\nentropy = 0.8113\nsamples = 4\nvalue = [1, 3]"] ;
47 -> 49 ;
50 [label="X[8] <= 0.3046\nentropy = 1.0\nsamples = 2\nvalue = [1, 1]"] ;
49 -> 50 ;
51 [label="entropy = 0.0\nsamples = 1\nvalue = [0, 1]"] ;
50 -> 51 ;
52 [label="entropy = 0.0\nsamples = 1\nvalue = [1, 0]"] ;
50 -> 52 ;
53 [label="entropy = 0.0\nsamples = 2\nvalue = [0, 2]"] ;
49 -> 53 ;
54 [label="entropy = 0.0\nsamples = 2\nvalue = [0, 2]"] ;
46 -> 54 ;
55 [label="X[8] <= 0.7067\nentropy = 0.5146\nsamples = 87\nvalue = [10, 77]"] ;
43 -> 55 ;
56 [label="X[3] <= 3.7\nentropy = 0.1959\nsamples = 33\nvalue = [1, 32]"] ;
55 -> 56 ;
57 [label="entropy = 0.0\nsamples = 30\nvalue = [0, 30]"] ;
56 -> 57 ;
58 [label="X[1] <= 3.0\nentropy = 0.9183\nsamples = 3\nvalue = [1, 2]"] ;
56 -> 58 ;
59 [label="entropy = 0.0\nsamples = 1\nvalue = [1, 0]"] ;
58 -> 59 ;
60 [label="entropy = 0.0\nsamples = 2\nvalue = [0, 2]"] ;
58 -> 60 ;
61 [label="X[8] <= 0.7267\nentropy = 0.65\nsamples = 54\nvalue = [9, 45]"] ;
55 -> 61 ;
62 [label="X[5] <= 1.0\nentropy = 0.8113\nsamples = 4\nvalue = [3, 1]"] ;
61 -> 62 ;
63 [label="entropy = 0.0\nsamples = 1\nvalue = [0, 1]"] ;
62 -> 63 ;
64 [label="entropy = 0.0\nsamples = 3\nvalue = [3, 0]"] ;
62 -> 64 ;
65 [label="X[0] <= 10.5\nentropy = 0.5294\nsamples = 50\nvalue = [6, 44]"] ;
61 -> 65 ;
66 [label="X[8] <= 1.0152\nentropy = 0.4754\nsamples = 49\nvalue = [5, 44]"] ;
65 -> 66 ;
67 [label="X[7] <= 2.55\nentropy = 0.7383\nsamples = 24\nvalue = [5, 19]"] ;
66 -> 67 ;
68 [label="entropy = 0.0\nsamples = 10\nvalue = [0, 10]"] ;
67 -> 68 ;
69 [label="X[4] <= 468.0\nentropy = 0.9403\nsamples = 14\nvalue = [5, 9]"] ;
67 -> 69 ;
70 [label="entropy = 0.0\nsamples = 3\nvalue = [3, 0]"] ;
69 -> 70 ;
71 [label="X[3] <= 3.65\nentropy = 0.684\nsamples = 11\nvalue = [2, 9]"] ;
69 -> 71 ;
72 [label="X[7] <= 3.55\nentropy = 0.8631\nsamples = 7\nvalue = [2, 5]"] ;
71 -> 72 ;
73 [label="X[6] <= 272.0\nentropy = 0.65\nsamples = 6\nvalue = [1, 5]"] ;
72 -> 73 ;
74 [label="entropy = 0.0\nsamples = 5\nvalue = [0, 5]"] ;
73 -> 74 ;
75 [label="entropy = 0.0\nsamples = 1\nvalue = [1, 0]"] ;
73 -> 75 ;
76 [label="entropy = 0.0\nsamples = 1\nvalue = [1, 0]"] ;
72 -> 76 ;
77 [label="entropy = 0.0\nsamples = 4\nvalue = [0, 4]"] ;
71 -> 77 ;
78 [label="entropy = 0.0\nsamples = 25\nvalue = [0, 25]"] ;
66 -> 78 ;
79 [label="entropy = 0.0\nsamples = 1\nvalue = [1, 0]"] ;
65 -> 79 ;
80 [label="entropy = 0.0\nsamples = 2\nvalue = [2, 0]"] ;
40 -> 80 ;
81 [label="entropy = 0.0\nsamples = 22\nvalue = [0, 22]"] ;
39 -> 81 ;
82 [label="entropy = 0.0\nsamples = 81\nvalue = [0, 81]"] ;
38 -> 82 ;
83 [label="X[4] <= 703.2\nentropy = 0.6388\nsamples = 210\nvalue = [34, 176]"] ;
37 -> 83 ;
84 [label="X[6] <= 343.2\nentropy = 0.8631\nsamples = 7\nvalue = [5, 2]"] ;
83 -> 84 ;
85 [label="X[6] <= 54.0\nentropy = 0.65\nsamples = 6\nvalue = [5, 1]"] ;
84 -> 85 ;
86 [label="X[7] <= 2.8\nentropy = 1.0\nsamples = 2\nvalue = [1, 1]"] ;
85 -> 86 ;
87 [label="entropy = 0.0\nsamples = 1\nvalue = [1, 0]"] ;
86 -> 87 ;
88 [label="entropy = 0.0\nsamples = 1\nvalue = [0, 1]"] ;
86 -> 88 ;
89 [label="entropy = 0.0\nsamples = 4\nvalue = [4, 0]"] ;
85 -> 89 ;
90 [label="entropy = 0.0\nsamples = 1\nvalue = [0, 1]"] ;
84 -> 90 ;
91 [label="X[6] <= 108.5\nentropy = 0.5917\nsamples = 203\nvalue = [29, 174]"] ;
83 -> 91 ;
92 [label="X[8] <= 0.9385\nentropy = 0.8015\nsamples = 82\nvalue = [20, 62]"] ;
91 -> 92 ;
93 [label="X[0] <= 2.5\nentropy = 0.5564\nsamples = 54\nvalue = [7, 47]"] ;
92 -> 93 ;
94 [label="X[7] <= 0.5\nentropy = 0.9403\nsamples = 14\nvalue = [5, 9]"] ;
93 -> 94 ;
95 [label="entropy = 0.0\nsamples = 2\nvalue = [2, 0]"] ;
94 -> 95 ;
96 [label="X[8] <= 0.4208\nentropy = 0.8113\nsamples = 12\nvalue = [3, 9]"] ;
94 -> 96 ;
97 [label="entropy = 0.0\nsamples = 6\nvalue = [0, 6]"] ;
96 -> 97 ;
98 [label="X[6] <= 8.0\nentropy = 1.0\nsamples = 6\nvalue = [3, 3]"] ;
96 -> 98 ;
99 [label="X[0] <= 0.5\nentropy = 0.8113\nsamples = 4\nvalue = [1, 3]"] ;
98 -> 99 ;
100 [label="entropy = 0.0\nsamples = 1\nvalue = [1, 0]"] ;
99 -> 100 ;
101 [label="entropy = 0.0\nsamples = 3\nvalue = [0, 3]"] ;
99 -> 101 ;
102 [label="entropy = 0.0\nsamples = 2\nvalue = [2, 0]"] ;
98 -> 102 ;
103 [label="X[1] <= 5.5\nentropy = 0.2864\nsamples = 40\nvalue = [2, 38]"] ;
93 -> 103 ;
104 [label="entropy = 0.0\nsamples = 22\nvalue = [0, 22]"] ;
103 -> 104 ;
105 [label="X[1] <= 6.5\nentropy = 0.5033\nsamples = 18\nvalue = [2, 16]"] ;
103 -> 105 ;
106 [label="X[5] <= 0.2\nentropy = 1.0\nsamples = 4\nvalue = [2, 2]"] ;
105 -> 106 ;
107 [label="X[8] <= 0.3662\nentropy = 0.9183\nsamples = 3\nvalue = [1, 2]"] ;
106 -> 107 ;
108 [label="entropy = 0.0\nsamples = 1\nvalue = [0, 1]"] ;
107 -> 108 ;
109 [label="X[8] <= 0.6571\nentropy = 1.0\nsamples = 2\nvalue = [1, 1]"] ;
107 -> 109 ;
110 [label="entropy = 0.0\nsamples = 1\nvalue = [1, 0]"] ;
109 -> 110 ;
111 [label="entropy = 0.0\nsamples = 1\nvalue = [0, 1]"] ;
109 -> 111 ;
112 [label="entropy = 0.0\nsamples = 1\nvalue = [1, 0]"] ;
106 -> 112 ;
113 [label="entropy = 0.0\nsamples = 14\nvalue = [0, 14]"] ;
105 -> 113 ;
114 [label="X[0] <= 9.5\nentropy = 0.9963\nsamples = 28\nvalue = [13, 15]"] ;
92 -> 114 ;
115 [label="X[8] <= 1.1673\nentropy = 0.9495\nsamples = 19\nvalue = [12, 7]"] ;
114 -> 115 ;
116 [label="entropy = 0.0\nsamples = 6\nvalue = [6, 0]"] ;
115 -> 116 ;
117 [label="X[7] <= 8.5\nentropy = 0.9957\nsamples = 13\nvalue = [6, 7]"] ;
115 -> 117 ;
118 [label="entropy = 0.0\nsamples = 3\nvalue = [0, 3]"] ;
117 -> 118 ;
119 [label="X[1] <= 5.5\nentropy = 0.971\nsamples = 10\nvalue = [6, 4]"] ;
117 -> 119 ;
120 [label="X[7] <= 14.95\nentropy = 0.9852\nsamples = 7\nvalue = [3, 4]"] ;
119 -> 120 ;
121 [label="X[8] <= 1.6313\nentropy = 0.8113\nsamples = 4\nvalue = [3, 1]"] ;
120 -> 121 ;
122 [label="entropy = 0.0\nsamples = 1\nvalue = [0, 1]"] ;
121 -> 122 ;
123 [label="entropy = 0.0\nsamples = 3\nvalue = [3, 0]"] ;
121 -> 123 ;
124 [label="entropy = 0.0\nsamples = 3\nvalue = [0, 3]"] ;
120 -> 124 ;
125 [label="entropy = 0.0\nsamples = 3\nvalue = [3, 0]"] ;
119 -> 125 ;
126 [label="X[5] <= 0.55\nentropy = 0.5033\nsamples = 9\nvalue = [1, 8]"] ;
114 -> 126 ;
127 [label="entropy = 0.0\nsamples = 8\nvalue = [0, 8]"] ;
126 -> 127 ;
128 [label="entropy = 0.0\nsamples = 1\nvalue = [1, 0]"] ;
126 -> 128 ;
129 [label="X[1] <= 4.5\nentropy = 0.3821\nsamples = 121\nvalue = [9, 112]"] ;
91 -> 129 ;
130 [label="X[8] <= 1.1363\nentropy = 0.7219\nsamples = 35\nvalue = [7, 28]"] ;
129 -> 130 ;
131 [label="X[0] <= 7.5\nentropy = 0.4022\nsamples = 25\nvalue = [2, 23]"] ;
130 -> 131 ;
132 [label="entropy = 0.0\nsamples = 22\nvalue = [0, 22]"] ;
131 -> 132 ;
133 [label="X[8] <= 0.6684\nentropy = 0.9183\nsamples = 3\nvalue = [2, 1]"] ;
131 -> 133 ;
134 [label="entropy = 0.0\nsamples = 2\nvalue = [2, 0]"] ;
133 -> 134 ;
135 [label="entropy = 0.0\nsamples = 1\nvalue = [0, 1]"] ;
133 -> 135 ;
136 [label="X[2] <= 6.35\nentropy = 1.0\nsamples = 10\nvalue = [5, 5]"] ;
130 -> 136 ;
137 [label="X[6] <= 383.91\nentropy = 0.65\nsamples = 6\nvalue = [5, 1]"] ;
136 -> 137 ;
138 [label="entropy = 0.0\nsamples = 5\nvalue = [5, 0]"] ;
137 -> 138 ;
139 [label="entropy = 0.0\nsamples = 1\nvalue = [0, 1]"] ;
137 -> 139 ;
140 [label="entropy = 0.0\nsamples = 4\nvalue = [0, 4]"] ;
136 -> 140 ;
141 [label="X[7] <= 4.2\nentropy = 0.1594\nsamples = 86\nvalue = [2, 84]"] ;
129 -> 141 ;
142 [label="X[8] <= 0.5604\nentropy = 0.4395\nsamples = 22\nvalue = [2, 20]"] ;
141 -> 142 ;
143 [label="entropy = 0.0\nsamples = 18\nvalue = [0, 18]"] ;
142 -> 143 ;
144 [label="X[3] <= 5.25\nentropy = 1.0\nsamples = 4\nvalue = [2, 2]"] ;
142 -> 144 ;
145 [label="entropy = 0.0\nsamples = 2\nvalue = [0, 2]"] ;
144 -> 145 ;
146 [label="entropy = 0.0\nsamples = 2\nvalue = [2, 0]"] ;
144 -> 146 ;
147 [label="entropy = 0.0\nsamples = 64\nvalue = [0, 64]"] ;
141 -> 147 ;
148 [label="entropy = 0.0\nsamples = 56\nvalue = [0, 56]"] ;
36 -> 148 ;
}